<?xml version="1.0"?>
<opencv_storage>
<stage10>
  <maxWeakCount>5</maxWeakCount>
  <stageThreshold>-1.8098636865615845e+00</stageThreshold>
  <weakClassifiers>
    <_>
      <internalNodes>
        0 -1 1545897 -1.4603653922677040e-02</internalNodes>
      <leafValues>
        3.5483869910240173e-01 -8.8824665546417236e-01</leafValues></_>
    <_>
      <internalNodes>
        0 -1 2743320 -8.5320025682449341e-03</internalNodes>
      <leafValues>
        1.6778995096683502e-01 -7.4839961528778076e-01</leafValues></_>
    <_>
      <internalNodes>
        0 -1 2066398 -2.3070155293680727e-04</internalNodes>
      <leafValues>
        -7.6451367139816284e-01 2.1097907423973083e-01</leafValues></_>
    <_>
      <internalNodes>
        0 -1 2309292 -1.4641336165368557e-03</internalNodes>
      <leafValues>
        5.0232505798339844e-01 -4.4582295417785645e-01</leafValues></_>
    <_>
      <internalNodes>
        0 -1 1130514 -6.5745264291763306e-03</internalNodes>
      <leafValues>
        -8.2721841335296631e-01 2.5221228599548340e-01</leafValues></_></weakClassifiers></stage10>
</opencv_storage>
